0.0
0.0
0.0
0.0
0.0
0.0
0.0
0.0
0.0
0.0
0.0
0.0
0.00475003882471
0.0104009470817
0.0
0.0
0.0
0.0
0.0
0.0
0.0
0.0
0.0
0.0
0.0
0.0
0.0
0.0
0.0
0.0
0.0
0.0
0.000143212296603
0.000501112835772
0.353416700872
0.530954557529
0.17088695942
0.0692473121323
0.141188784957
0.255262409781
0.504817773373
0.247109095538
-0.182771281448
0.0728538569793
0.0710121606698
0.0593719865502
0.0431901408299
0.638591234904
0.424186363182
0.105086830793
0.120706030807
0.0115313132825
0.0
0.0
0.0
0.0
0.0
0.0
0.000376878011492
7.6470588593e-05
0.00350306020579
0.00231977211841
0.176849297224
0.934660833161
0.546273808944
0.392336338019
0.782084159208
1.00497688321
1.06044302458
0.611561407539
1.1504101096
1.56339154142
1.58152307883
1.20810618785
0.988375774596
1.10447753705
0.747641435846
0.704340113059
0.598669642885
0.342113265264
0.0244678311882
0.00384926954756
0.0
0.0
0.0
0.0
0.000830309369068
0.0019082518173
0.0053443891002
0.107987977365
0.76700581438
0.90574474671
1.08486484984
2.06050187893
1.70641296597
1.87095119129
2.22006043882
2.60198791431
1.15472534605
1.5145251855
0.918968437195
0.902396408632
1.11796918117
1.09853986312
0.74446691392
0.177274834547
0.061009940267
0.694457953901
0.345997640184
0.0159222192556
0.00782286513682
0.0
0.0
0.0
0.000214613972615
0.00152637073276
0.112321689416
0.470797982192
0.635083767047
0.598521463687
0.801377284051
1.59313228988
1.16344059888
1.24117350983
1.14126095747
-0.311174946854
-0.242349280756
0.0699688995272
-0.340040478512
-0.361191289157
0.184884574431
1.01174005411
1.35467797404
0.231045520699
-0.105082292586
0.469757230459
-0.231700107514
-0.165539370123
0.000480112185096
0.00113556054155
0.0
0.0
0.0023483128295
-0.00153512638287
0.648096278154
0.810257431254
0.591793450228
0.333812075898
0.443349333253
0.446289623699
0.0749519535295
0.470047747727
-0.778446706297
-0.669591748475
0.191277360018
0.118750212966
-0.404563859808
1.04582583693
-0.310085973554
0.268448708122
0.504499885831
0.425364731153
-0.00395139884645
0.250561161099
1.42692212332
1.12438050402
0.00637298657195
0.00167630365658
0.0
0.0
0.00108495626329
-0.00799690428001
0.85665116132
0.891283770672
0.372663230561
0.839118042664
0.214170290748
-0.498522015418
-1.35034964999
0.19598227922
-0.673032617704
0.578669342987
0.43981237407
0.11695316242
-0.233539195345
-0.285385228763
0.0603805664312
-0.559553570631
-0.515723091023
-0.550909201774
0.0170344171062
0.0575914558639
1.89028670519
1.82109733539
-0.0374957316688
0.020917228451
0.0
0.0
0.0
-0.0164403055413
0.791741487713
0.572718897546
-0.238429077186
0.106445914845
0.606193965872
-1.11638232407
-0.878735981394
0.189486589759
0.0218611678497
-0.226270042498
-1.0982315195
-0.486331140044
-0.536489247853
-0.551593210188
0.975241385164
-0.509848265556
-1.4068755745
-1.33734253667
-2.21192418406
-1.06948836332
1.30771461229
0.844104848947
-0.489922764605
0.0135501542796
0.0
0.0
-0.000798724393745
-0.0230026785262
0.506149718244
0.45682055729
-0.358603509324
0.0393500750826
1.15909613323
-0.635137403988
0.426342913036
-0.0468441006252
-0.921661831543
-0.571433790987
-0.499380618527
-0.903280817521
-1.31893483471
-1.27597652717
-2.01769242686
-0.198037867682
0.280120836297
-1.06596712655
-3.03612360061
-2.83957267923
-1.01592900581
-0.466261532551
-0.0853025793961
0.0
0.0
0.0
-0.000869200075546
-0.0218692545534
1.0018421912
0.745191085643
-0.812946926134
0.307245850502
1.01272918621
0.215592643528
0.320453141678
-0.208028991785
-1.10705262841
-0.488012135272
-0.29730559515
-1.65053364856
-3.08803019296
-4.45060732547
-3.29610935854
-1.48894229546
-0.180855361187
-1.77164725343
-3.2937616405
-3.03504273262
-0.892763223329
-0.233933713065
-0.0179685799252
0.0
0.0
0.0
-0.00178679128979
-0.0295048014163
0.84141493192
0.71056280705
-1.3639776984
-0.0863684823688
0.508976761932
-0.272275839744
-0.490131251622
-0.682206683994
-0.404963666644
-0.175470249509
0.0824489049385
-1.55852767078
-1.12940027073
-2.75496423179
-2.69111349773
-1.74439720184
-0.882547169592
-1.42904421938
-1.29375198632
-0.715764300436
0.117227890997
-0.35321027474
0.00328596779355
0.0
0.0
-7.64402051591e-05
-0.00357257275419
-0.0390959993125
0.588543731482
0.47617456515
-1.45410454564
0.366175644331
-0.0722069938194
-0.485771434849
-0.542927494669
0.280212575753
-0.306493067926
0.421180371016
0.718892635213
-1.23037908466
-0.0295848031609
-1.36512095902
-0.821884162468
-1.14382733096
0.22335581434
0.596529951298
0.567061828798
1.50491223598
1.4367035822
0.296045644521
0.00117603653359
0.000770605587797
0.0
-0.000752642020028
-0.00357828024036
-0.0445815652631
0.0747927355344
0.370920750888
-0.5133098272
0.0105032804521
-0.893749703915
0.417736982714
-0.0399968727687
-0.174160651644
-0.872148514819
0.750139280245
1.21347212138
-0.316089962966
0.812991388279
-0.306598818323
0.0352424654985
-1.38512743306
0.591593145961
0.407787080031
0.820625741145
2.52541339227
1.920715812
0.477018244582
-0.0989185230125
0.000894137781261
0.0
-0.00148764399271
-0.00176366670413
-0.0423383373669
-0.638107247884
0.377207854234
-0.471206372069
-1.19525608692
-1.64169052458
-0.164803980738
0.422202297085
-0.888729706299
0.0397813255554
0.864288134175
-0.302369846145
-0.91631726665
-0.0177999555087
-1.39923076387
-0.825259210984
0.566562402988
-0.916666350798
0.868208999114
0.240842615985
2.30625745983
1.14519694599
-0.745326006601
-0.210872414721
0.000241181901524
0.0
-0.000711481909558
-0.00166390691368
-0.053302323191
-1.62611416171
-0.390808327353
-0.023232254785
-1.20829830551
-1.41697750588
-0.644612730645
0.0727665168075
-0.304778099465
0.269939618961
0.210935458301
0.445365652984
1.1330350576
-0.420165796149
-2.45581774752
0.324875611704
0.00602720578741
-1.14007294377
1.20388064636
0.52093170243
1.84564124181
0.47007371351
-1.77286271939
-0.023999097989
0.0
0.0
-3.52800946888e-05
-0.00286958848566
-0.0769198058261
-1.69245156647
-1.75691381892
-0.294633269333
-0.825675056538
-1.71165260605
-1.67187297361
0.0236157559919
0.023102000865
-1.75076755563
1.10247808235
1.99596277478
1.23920619746
-0.433916128072
-2.67509051627
0.107104261023
1.13072660619
-0.234936889684
0.0593171665559
1.23765625606
1.328464598
0.695326578577
-0.68309912063
-0.120333233928
-8.23495811752e-05
0.0
0.0
-0.00141299321285
-0.0619143982604
-1.19022469403
-0.767301895833
0.167038077163
-0.00290840550104
0.159678579221
-0.11708467853
0.295745777155
0.787352957575
0.232137019317
0.0247606828723
-0.00735773225069
-0.467410855851
-0.24417218066
-1.27649884829
1.13429637339
0.560097492232
-1.03147842389
-0.517573908448
0.876713526113
0.294960780116
1.17469652934
0.127994967585
-0.121300609106
-0.000150974232155
0.0
0.0
-0.00325260742303
-0.0546341891408
-0.584410845408
-0.407321839791
-0.451591254075
-0.0788011648467
1.06113000586
-0.611713649747
0.805307514244
1.53815379226
-0.152283669749
-0.253004480042
-0.970754462408
-1.23749931191
-1.02124846758
-0.375676117913
0.450949451729
0.574369034317
0.49960471365
-0.329914607842
-0.112461340463
-0.0200575889704
0.495392734275
0.396884275787
-0.043999660377
-0.000150974232155
0.0
0.0
-0.00296622807026
-0.0787992349355
-0.284685063326
0.391051044215
-0.0590211315367
0.972043774405
0.486485452455
-0.884064446816
0.99104607104
1.04147048524
1.76655444328
0.704102121865
-1.20623119285
-0.683797354356
0.655941245561
1.56371974525
0.238504035544
0.76510078603
-0.225091539636
0.313332421838
0.110614888216
0.399389161381
-0.290892536892
0.402461105867
0.0531131147846
-5.48997207835e-05
0.0
0.0
-0.00243550581367
-0.179655019365
-0.34582417522
0.260197833486
1.72413479979
0.43388024723
-0.253891338224
0.911138701903
1.94111601304
1.79780264453
0.829709034844
0.583052015611
1.66567372242
1.33458481291
0.190429630583
0.955926912244
-0.29033178313
-0.147018277999
0.651245522375
0.588152833642
0.0678743532351
-1.26237184931
-0.444776485637
0.0262052301657
0.00187567450785
0.0
0.0
0.0
-0.0013640788714
-0.0956013029293
-0.833579229589
-0.527564791252
-0.267687763417
1.99434127448
1.24555321167
1.37436010902
3.53287106586
2.59815314033
2.45536595359
0.547291801103
2.23375503502
0.960916416362
-0.406863939177
-0.148655547879
0.316828173128
-1.14852479014
-0.153731355089
0.512732923383
-0.468821037822
-1.39161076533
-0.379347789468
0.00642698364928
0.00246942121008
0.0
0.0
0.0
0.000113851592961
-0.0372366403521
-0.268176842225
-1.76451971735
-1.03333606069
0.814265651649
0.849459158707
1.99548363045
4.42927016038
2.60263415363
2.58723965516
2.38272675118
1.88366521125
0.608103955715
1.3754699904
0.657982568905
0.915512839173
-0.698514599349
-0.29809258775
-0.483524182483
-0.399925448173
-0.98409630793
-0.245320825391
5.07615558241e-05
0.00246942121008
0.0
0.0
0.0
0.0
0.0
0.0
-0.232970008176
-0.528711137894
0.264625813529
0.120777439301
0.459328285565
0.579989906405
-0.529053508464
1.8765562952
2.5471280193
0.981932304305
1.27219689399
1.35470434861
1.55805057123
1.46614481349
0.31043847061
0.0708912937787
-1.04178710386
-1.02028066991
-0.951259085901
-0.179704811525
-0.0035043284498
0.000681852795933
0.0
0.0
0.0
0.0
0.0
0.0
-0.0048294111028
-0.105565941524
-0.795001322421
-1.66223509283
-0.637334525606
-1.91152847395
-1.93048509318
-1.00102537318
-0.192584474356
-1.07172290833
-1.5787625114
-0.212938428066
-0.147081268901
0.344140107832
0.16311653956
-0.447578682125
-0.152457762773
-0.256651903222
-0.116238587821
-0.0331198801015
-0.00219450510637
-0.000376470579814
0.0
0.0
0.0
0.0
0.0
0.0
-0.00885084277966
-0.125628746821
-0.792153611425
-1.36357575888
-1.27665132773
-1.37682154163
-2.91662223241
-2.37800322464
-1.87766360491
-1.31844200158
-0.555191284417
0.94101248175
0.897012067588
0.110549802373
-0.569531703137
-0.290780943115
-0.432867569257
-0.438774761504
-0.19498170538
-0.0119359819047
-0.00106009702051
0.0
0.0
0.0
0.0
0.0
0.0
-0.000793224220826
-0.00363602866072
-0.0193689026528
-0.0677304289764
-0.275099825599
-0.262675971748
-0.384421182812
-0.562373316993
-0.196040026934
-0.515403472628
-0.513466591369
-0.469316206581
-0.395013558002
-0.296467126103
-0.213257807731
-0.1311871535
-0.0651008492095
-0.0299823808461
-0.0196842263175
-0.119960788946
-0.0224878859625
0.0
0.0
0.0
0.0
0.0
0.0
0.0
-0.000805063388301
-0.00299530937118
-0.0028887568639
-0.000769798399878
-0.00518340251742
-0.00936623447741
-0.0170112376148
-0.015776460538
-0.0163387065331
-0.0140080117981
-0.0138377016075
-0.0121945477042
-0.00675082994677
-0.00773848559062
-0.00690761287859
-0.002749676409
-0.000730054237949
0.0
-0.000488039194745
-0.00107177234924
-2.87081879262e-05
0.0
0.0
0.0
0.0
0.0
0.0
0.0
0.0
0.0
0.0
0.0
0.0
0.0
0.0
0.0
0.0
0.0
0.0
0.0
0.0
0.0
0.0
0.0
0.0
0.0
0.0
0.0
0.0
0.0
0.0
0.0
[-3.13018684]